<?xml version="1.0"?>
<opencv_storage>
<!-- Created using Computer Vision System Toolbox(tm) for MATLAB(R) -->
<!-- Version 9.2.0.556344 (R2017a) -->
<!-- Compatible with OpenCV 3.1 -->
<cascade>
  <stageType>BOOST</stageType>
  <featureType>LBP</featureType>
  <height>32</height>
  <width>32</width>
  <stageParams>
    <boostType>GAB</boostType>
    <minHitRate>1.</minHitRate>
    <maxFalseAlarm>6.0000002384185791e-01</maxFalseAlarm>
    <weightTrimRate>9.4999999999999996e-01</weightTrimRate>
    <maxDepth>1</maxDepth>
    <maxWeakCount>100</maxWeakCount></stageParams>
  <featureParams>
    <maxCatCount>256</maxCatCount>
    <featSize>1</featSize></featureParams>
  <stageNum>14</stageNum>
  <stages>
    <!-- stage 0 -->
    <_>
      <maxWeakCount>2</maxWeakCount>
      <stageThreshold>-4.6960741281509399e-01</stageThreshold>
      <weakClassifiers>
        <_>
          <internalNodes>
            0 -1 16 2147466159 -1 -16466 -1073741825 -1 1979711487 -1
            2147483647</internalNodes>
          <leafValues>
            -1.3027672767639160e+00 7.3464566469192505e-01</leafValues></_>
        <_>
          <internalNodes>
            0 -1 38 -16908690 -1358954497 -4370 -285212673 -32921 -1
            -9994377 -1224736777</internalNodes>
          <leafValues>
            -1.1512829065322876e+00 8.3315992355346680e-01</leafValues></_></weakClassifiers></_>
    <!-- stage 1 -->
    <_>
      <maxWeakCount>2</maxWeakCount>
      <stageThreshold>-8.5039544105529785e-01</stageThreshold>
      <weakClassifiers>
        <_>
          <internalNodes>
            0 -1 11 -36 -1 -1 -1 -2 -33554433 -2 -1140850689</internalNodes>
          <leafValues>
            -1.0390483140945435e+00 1.0167659521102905e+00</leafValues></_>
        <_>
          <internalNodes>
            0 -1 29 -268439578 721420287 -268435762 1728048879 -137
            1736441855 -129 1719664639</internalNodes>
          <leafValues>
            -1.8671612739562988e+00 5.8455443382263184e-01</leafValues></_></weakClassifiers></_>
    <!-- stage 2 -->
    <_>
      <maxWeakCount>3</maxWeakCount>
      <stageThreshold>-1.5384761095046997e+00</stageThreshold>
      <weakClassifiers>
        <_>
          <internalNodes>
            0 -1 3 1073487356 2147483647 -1 -1 -65537 -1 -65537 -196611</internalNodes>
          <leafValues>
            -1.1573166847229004e+00 5.2381336688995361e-01</leafValues></_>
        <_>
          <internalNodes>
            0 -1 1 -184324 -2 -1 -1 -1073741825 1979711487 -1 2147483647</internalNodes>
          <leafValues>
            -8.1785684823989868e-01 8.3023959398269653e-01</leafValues></_>
        <_>
          <internalNodes>
            0 -1 17 -553844868 217907199 -1 -1342177281 -3 2147418111
            -65 1073741823</internalNodes>
          <leafValues>
            -1.2113989591598511e+00 6.3317304849624634e-01</leafValues></_></weakClassifiers></_>
    <!-- stage 3 -->
    <_>
      <maxWeakCount>2</maxWeakCount>
      <stageThreshold>-9.7958260774612427e-01</stageThreshold>
      <weakClassifiers>
        <_>
          <internalNodes>
            0 -1 20 -235 -1 -193 -1 -36 2113929215 -2 -1</internalNodes>
          <leafValues>
            -8.5611939430236816e-01 8.7314856052398682e-01</leafValues></_>
        <_>
          <internalNodes>
            0 -1 4 1069292796 1073725439 -2 -1073774593 -65538 -32769
            2130640892 511229948</internalNodes>
          <leafValues>
            -1.8527312278747559e+00 4.5743808150291443e-01</leafValues></_></weakClassifiers></_>
    <!-- stage 4 -->
    <_>
      <maxWeakCount>3</maxWeakCount>
      <stageThreshold>-1.7589257955551147e+00</stageThreshold>
      <weakClassifiers>
        <_>
          <internalNodes>
            0 -1 26 -16385 2147483647 -16386 -1 -1 -1073741825 -16388
            1056964606</internalNodes>
          <leafValues>
            -9.5816111564636230e-01 4.6329119801521301e-01</leafValues></_>
        <_>
          <internalNodes>
            0 -1 9 -805624692 -570490882 -4562 1610612735 -11 1979711487
            -65 2113929215</internalNodes>
          <leafValues>
            -1.2562001943588257e+00 4.5814463496208191e-01</leafValues></_>
        <_>
          <internalNodes>
            0 -1 5 -587440900 268304255 -3 805273599 2113830396
            2130509823 -1074069508 708083711</internalNodes>
          <leafValues>
            -1.6824902296066284e+00 4.5543554425239563e-01</leafValues></_></weakClassifiers></_>
    <!-- stage 5 -->
    <_>
      <maxWeakCount>2</maxWeakCount>
      <stageThreshold>-6.5267276763916016e-01</stageThreshold>
      <weakClassifiers>
        <_>
          <internalNodes>
            0 -1 0 -1073971204 -1 -1 -1 -1 -1 -1 -1</internalNodes>
          <leafValues>
            -1.2358306646347046e+00 5.6915605068206787e-01</leafValues></_>
        <_>
          <internalNodes>
            0 -1 34 -45074 804192255 -285216980 721219583 -37001
            2147483647 -139 -1501560833</internalNodes>
          <leafValues>
            -1.2218288183212280e+00 7.1828490495681763e-01</leafValues></_></weakClassifiers></_>
    <!-- stage 6 -->
    <_>
      <maxWeakCount>2</maxWeakCount>
      <stageThreshold>-6.8790358304977417e-01</stageThreshold>
      <weakClassifiers>
        <_>
          <internalNodes>
            0 -1 15 -41668 1073741823 -1 1073741823 -1 2147483647 -2
            -65537</internalNodes>
          <leafValues>
            -9.7887229919433594e-01 5.3100126981735229e-01</leafValues></_>
        <_>
          <internalNodes>
            0 -1 2 -55640 -1 -66 -65537 905969663 -704774145 -65
            2147483647</internalNodes>
          <leafValues>
            -1.2189048528671265e+00 5.0841987133026123e-01</leafValues></_></weakClassifiers></_>
    <!-- stage 7 -->
    <_>
      <maxWeakCount>3</maxWeakCount>
      <stageThreshold>-1.3232400417327881e+00</stageThreshold>
      <weakClassifiers>
        <_>
          <internalNodes>
            0 -1 31 -1 1073676287 -2 1073676286 -32769 2147483647 -3 -1</internalNodes>
          <leafValues>
            -8.5344660282135010e-01 5.8461493253707886e-01</leafValues></_>
        <_>
          <internalNodes>
            0 -1 12 1073618428 -1 -1 -1 -65537 -1 -65539 -1090748420</internalNodes>
          <leafValues>
            -7.2147071361541748e-01 6.1106264591217041e-01</leafValues></_>
        <_>
          <internalNodes>
            0 -1 36 -285233172 -16973825 -84 -318767105 -32907 -129
            2147450741 -134742027</internalNodes>
          <leafValues>
            -1.0808560848236084e+00 4.2493379116058350e-01</leafValues></_></weakClassifiers></_>
    <!-- stage 8 -->
    <_>
      <maxWeakCount>4</maxWeakCount>
      <stageThreshold>-1.1862887144088745e+00</stageThreshold>
      <weakClassifiers>
        <_>
          <internalNodes>
            0 -1 10 -16619 -1 -193 -1 -4 2113929215 -1 2147483647</internalNodes>
          <leafValues>
            -9.1767495870590210e-01 3.3296731114387512e-01</leafValues></_>
        <_>
          <internalNodes>
            0 -1 41 1879048046 1862205439 -1048722 -285282306 -137
            2147483647 -41132 -134873089</internalNodes>
          <leafValues>
            -1.1543381214141846e+00 4.2096838355064392e-01</leafValues></_>
        <_>
          <internalNodes>
            0 -1 6 -260 -1 -1 2147483647 -16777220 -33554433 -1073758210
            822083582</internalNodes>
          <leafValues>
            -8.3999252319335938e-01 5.3575903177261353e-01</leafValues></_>
        <_>
          <internalNodes>
            0 -1 33 -84 788004605 -268439890 721420031 -32907 2013265919
            -129 1593835519</internalNodes>
          <leafValues>
            -9.0067696571350098e-01 5.2944934368133545e-01</leafValues></_></weakClassifiers></_>
    <!-- stage 9 -->
    <_>
      <maxWeakCount>2</maxWeakCount>
      <stageThreshold>-9.5699924230575562e-01</stageThreshold>
      <weakClassifiers>
        <_>
          <internalNodes>
            0 -1 21 805059964 -1 -1 -1 -65539 -1 -2 -1346600964</internalNodes>
          <leafValues>
            -1.4513208866119385e+00 1.1363647133111954e-01</leafValues></_>
        <_>
          <internalNodes>
            0 -1 22 1073692671 1073610751 -268435457 2147483647 -49153
            -1073741825 -16452 880738166</internalNodes>
          <leafValues>
            -8.6319053173065186e-01 4.9432170391082764e-01</leafValues></_></weakClassifiers></_>
    <!-- stage 10 -->
    <_>
      <maxWeakCount>4</maxWeakCount>
      <stageThreshold>-1.2826740741729736e+00</stageThreshold>
      <weakClassifiers>
        <_>
          <internalNodes>
            0 -1 8 -16401 -1 -18 -1 -1 2013265919 -1 -1</internalNodes>
          <leafValues>
            -8.5157597064971924e-01 2.8708073496818542e-01</leafValues></_>
        <_>
          <internalNodes>
            0 -1 19 -1644380804 -196609 -1 1073741823 -65667 -1 -327684
            1044152317</internalNodes>
          <leafValues>
            -1.2722570896148682e+00 2.9220339655876160e-01</leafValues></_>
        <_>
          <internalNodes>
            0 -1 37 -2 -1359020033 -2 -1359020033 -32769 2147483647 -137
            -16777217</internalNodes>
          <leafValues>
            -4.6784371137619019e-01 6.9313448667526245e-01</leafValues></_>
        <_>
          <internalNodes>
            0 -1 28 1073692670 -81922 -1342193668 1073676287 2147483647
            2147483647 -32772 939524094</internalNodes>
          <leafValues>
            -9.9063229560852051e-01 3.6777594685554504e-01</leafValues></_></weakClassifiers></_>
    <!-- stage 11 -->
    <_>
      <maxWeakCount>6</maxWeakCount>
      <stageThreshold>-1.0403470993041992e+00</stageThreshold>
      <weakClassifiers>
        <_>
          <internalNodes>
            0 -1 24 -740 2147483647 -65 -1 -65540 2113798143 -65540
            -1090584579</internalNodes>
          <leafValues>
            -6.1705124378204346e-01 5.0254309177398682e-01</leafValues></_>
        <_>
          <internalNodes>
            0 -1 39 805187582 -1358954497 -2 -1090519041 -32771
            2113929215 -32779 1979547645</internalNodes>
          <leafValues>
            -8.9235055446624756e-01 3.7243109941482544e-01</leafValues></_>
        <_>
          <internalNodes>
            0 -1 40 -65537 1073676287 -1064962 -1073823745 -32771
            2147483647 -49156 1073627132</internalNodes>
          <leafValues>
            -7.2448199987411499e-01 4.0601512789726257e-01</leafValues></_>
        <_>
          <internalNodes>
            0 -1 18 1073496060 -1 -1 -1073741825 -1 -1 -3 -1342373889</internalNodes>
          <leafValues>
            -7.7756631374359131e-01 4.9637505412101746e-01</leafValues></_>
        <_>
          <internalNodes>
            0 -1 30 -268435460 788463615 -268435457 805306367 -129
            2147483647 -1 -1</internalNodes>
          <leafValues>
            -5.9749531745910645e-01 5.2472287416458130e-01</leafValues></_>
        <_>
          <internalNodes>
            0 -1 7 636759460 -571555842 2147467198 -1 -33685505
            1979187199 -1 402636783</internalNodes>
          <leafValues>
            -1.3998322486877441e+00 3.2678574323654175e-01</leafValues></_></weakClassifiers></_>
    <!-- stage 12 -->
    <_>
      <maxWeakCount>3</maxWeakCount>
      <stageThreshold>-5.2882361412048340e-01</stageThreshold>
      <weakClassifiers>
        <_>
          <internalNodes>
            0 -1 35 -17039382 586088431 2130701920 720170734 2147450742
            2147483519 -143 1728053111</internalNodes>
          <leafValues>
            -1.5040774345397949e+00 6.3353842496871948e-01</leafValues></_>
        <_>
          <internalNodes>
            0 -1 14 -65668 -1 -1 -1073807361 -65538 -1 -65540 721223678</internalNodes>
          <leafValues>
            -7.2100913524627686e-01 6.3347548246383667e-01</leafValues></_>
        <_>
          <internalNodes>
            0 -1 13 1055670172 -553681026 -1 -268435586 -196618 -1
            -327682 918306804</internalNodes>
          <leafValues>
            -1.1995100975036621e+00 3.4177830815315247e-01</leafValues></_></weakClassifiers></_>
    <!-- stage 13 -->
    <_>
      <maxWeakCount>4</maxWeakCount>
      <stageThreshold>2.9126906767487526e-02</stageThreshold>
      <weakClassifiers>
        <_>
          <internalNodes>
            0 -1 32 -285283794 686817023 -285233366 587132655 -8430251
            2013265919 2021097317 1157627767</internalNodes>
          <leafValues>
            -5.7564578056335449e+00 8.1898713111877441e-01</leafValues></_>
        <_>
          <internalNodes>
            0 -1 27 -129 -1 -2 -16777217 -164 2147483647 -4 -318767105</internalNodes>
          <leafValues>
            -5.4396396875381470e-01 6.2445962429046631e-01</leafValues></_>
        <_>
          <internalNodes>
            0 -1 23 2147385148 503316479 -1 -1073741825 -131 2147483647
            -3 -1</internalNodes>
          <leafValues>
            -6.6583114862442017e-01 6.2885212898254395e-01</leafValues></_>
        <_>
          <internalNodes>
            0 -1 25 1064971310 721305471 -257 980058101 2129886980
            1073741823 -33452 544956279</internalNodes>
          <leafValues>
            -1.2534394264221191e+00 4.1993489861488342e-01</leafValues></_></weakClassifiers></_></stages>
  <features>
    <_>
      <rect>
        0 4 1 6</rect></_>
    <_>
      <rect>
        0 4 9 8</rect></_>
    <_>
      <rect>
        0 4 10 7</rect></_>
    <_>
      <rect>
        0 11 4 2</rect></_>
    <_>
      <rect>
        0 12 3 2</rect></_>
    <_>
      <rect>
        0 12 7 3</rect></_>
    <_>
      <rect>
        0 12 10 4</rect></_>
    <_>
      <rect>
        1 0 9 8</rect></_>
    <_>
      <rect>
        1 0 10 4</rect></_>
    <_>
      <rect>
        1 2 10 7</rect></_>
    <_>
      <rect>
        2 11 10 2</rect></_>
    <_>
      <rect>
        2 12 9 3</rect></_>
    <_>
      <rect>
        2 14 3 1</rect></_>
    <_>
      <rect>
        2 15 2 1</rect></_>
    <_>
      <rect>
        2 15 6 2</rect></_>
    <_>
      <rect>
        3 11 5 2</rect></_>
    <_>
      <rect>
        4 2 8 5</rect></_>
    <_>
      <rect>
        4 6 5 5</rect></_>
    <_>
      <rect>
        4 13 1 1</rect></_>
    <_>
      <rect>
        5 10 3 4</rect></_>
    <_>
      <rect>
        5 12 9 2</rect></_>
    <_>
      <rect>
        5 14 1 1</rect></_>
    <_>
      <rect>
        5 14 9 5</rect></_>
    <_>
      <rect>
        6 9 4 3</rect></_>
    <_>
      <rect>
        6 13 5 2</rect></_>
    <_>
      <rect>
        6 26 6 2</rect></_>
    <_>
      <rect>
        8 12 6 6</rect></_>
    <_>
      <rect>
        8 16 6 1</rect></_>
    <_>
      <rect>
        9 5 5 9</rect></_>
    <_>
      <rect>
        11 3 3 3</rect></_>
    <_>
      <rect>
        11 6 2 4</rect></_>
    <_>
      <rect>
        13 2 2 10</rect></_>
    <_>
      <rect>
        13 3 3 4</rect></_>
    <_>
      <rect>
        13 5 2 4</rect></_>
    <_>
      <rect>
        14 0 2 6</rect></_>
    <_>
      <rect>
        14 1 2 3</rect></_>
    <_>
      <rect>
        14 2 4 7</rect></_>
    <_>
      <rect>
        15 0 1 5</rect></_>
    <_>
      <rect>
        15 0 2 4</rect></_>
    <_>
      <rect>
        15 1 5 10</rect></_>
    <_>
      <rect>
        15 10 2 7</rect></_>
    <_>
      <rect>
        16 1 1 1</rect></_></features></cascade>
</opencv_storage>
