<?xml version="1.0"?>
<opencv_storage>
<!-- Created using Computer Vision System Toolbox(tm) for MATLAB(R) -->
<!-- Version 9.2.0.556344 (R2017a) -->
<!-- Compatible with OpenCV 3.1 -->
<cascade>
  <stageType>BOOST</stageType>
  <featureType>LBP</featureType>
  <height>32</height>
  <width>32</width>
  <stageParams>
    <boostType>GAB</boostType>
    <minHitRate>1.</minHitRate>
    <maxFalseAlarm>6.0000002384185791e-01</maxFalseAlarm>
    <weightTrimRate>9.4999999999999996e-01</weightTrimRate>
    <maxDepth>1</maxDepth>
    <maxWeakCount>100</maxWeakCount></stageParams>
  <featureParams>
    <maxCatCount>256</maxCatCount>
    <featSize>1</featSize></featureParams>
  <stageNum>10</stageNum>
  <stages>
    <!-- stage 0 -->
    <_>
      <maxWeakCount>2</maxWeakCount>
      <stageThreshold>-7.0744198560714722e-01</stageThreshold>
      <weakClassifiers>
        <_>
          <internalNodes>
            0 -1 8 -2 -1 -65538 -1 -1 -1 -1 -1</internalNodes>
          <leafValues>
            -2.1400661468505859e+00 1.5608345270156860e+00</leafValues></_>
        <_>
          <internalNodes>
            0 -1 9 -4372 -285212673 -4498 -285212673 -129 -1 -521 -1</internalNodes>
          <leafValues>
            -1.9650725126266479e+00 1.4326242208480835e+00</leafValues></_></weakClassifiers></_>
    <!-- stage 1 -->
    <_>
      <maxWeakCount>2</maxWeakCount>
      <stageThreshold>-8.8837820291519165e-01</stageThreshold>
      <weakClassifiers>
        <_>
          <internalNodes>
            0 -1 1 -1 -1 -65537 -65538 -1 -1 -1 -1</internalNodes>
          <leafValues>
            -1.6190420389175415e+00 1.1047472953796387e+00</leafValues></_>
        <_>
          <internalNodes>
            0 -1 25 2147237884 -1 -1 -1 2147483647 -1 -1 -1</internalNodes>
          <leafValues>
            -1.9931255578994751e+00 1.0727218389511108e+00</leafValues></_></weakClassifiers></_>
    <!-- stage 2 -->
    <_>
      <maxWeakCount>3</maxWeakCount>
      <stageThreshold>-2.2594892978668213e+00</stageThreshold>
      <weakClassifiers>
        <_>
          <internalNodes>
            0 -1 15 -1 -1 -1 -1 -172555 -1 -1 -1</internalNodes>
          <leafValues>
            -1.3474342823028564e+00 9.5768672227859497e-01</leafValues></_>
        <_>
          <internalNodes>
            0 -1 3 -65538 -1 -65537 -1 -1 -1 -1 -1</internalNodes>
          <leafValues>
            -1.3690696954727173e+00 8.6443775892257690e-01</leafValues></_>
        <_>
          <internalNodes>
            0 -1 0 -1 -285212673 -1 -285212673 -129 -1 -1 2147483647</internalNodes>
          <leafValues>
            -1.8481063842773438e+00 6.7006629705429077e-01</leafValues></_></weakClassifiers></_>
    <!-- stage 3 -->
    <_>
      <maxWeakCount>3</maxWeakCount>
      <stageThreshold>-1.5060794353485107e+00</stageThreshold>
      <weakClassifiers>
        <_>
          <internalNodes>
            0 -1 19 -1 -1 -1 -1 2147450879 -1 -32769 -1</internalNodes>
          <leafValues>
            -1.2661371231079102e+00 1.0841945409774780e+00</leafValues></_>
        <_>
          <internalNodes>
            0 -1 22 -131587 -1 -1 -1 2147311101 -1 -1 -1</internalNodes>
          <leafValues>
            -1.4333467483520508e+00 7.3846238851547241e-01</leafValues></_>
        <_>
          <internalNodes>
            0 -1 16 -1 -1 -2 -1 -131076 -1 -4 -1</internalNodes>
          <leafValues>
            -6.6515332460403442e-01 1.1934045553207397e+00</leafValues></_></weakClassifiers></_>
    <!-- stage 4 -->
    <_>
      <maxWeakCount>3</maxWeakCount>
      <stageThreshold>-1.6654260158538818e+00</stageThreshold>
      <weakClassifiers>
        <_>
          <internalNodes>
            0 -1 23 -65539 -1 -1 -1 -65537 -1 -65537 -196612</internalNodes>
          <leafValues>
            -1.3473136425018311e+00 4.9510148167610168e-01</leafValues></_>
        <_>
          <internalNodes>
            0 -1 13 -18 -16777217 -18 -1 -1 -1 -137 -1</internalNodes>
          <leafValues>
            -9.9806338548660278e-01 7.8952515125274658e-01</leafValues></_>
        <_>
          <internalNodes>
            0 -1 2 -65794 -1 -65793 -65538 -1 -1 -1 -1</internalNodes>
          <leafValues>
            -9.5835375785827637e-01 6.7995101213455200e-01</leafValues></_></weakClassifiers></_>
    <!-- stage 5 -->
    <_>
      <maxWeakCount>3</maxWeakCount>
      <stageThreshold>-1.3776402473449707e+00</stageThreshold>
      <weakClassifiers>
        <_>
          <internalNodes>
            0 -1 20 -1 -1 -1 -1 -131075 -1 -1 -1</internalNodes>
          <leafValues>
            -1.0035904645919800e+00 5.5375063419342041e-01</leafValues></_>
        <_>
          <internalNodes>
            0 -1 12 -65538 -1 -65537 -65538 -3 -1 -65537 -16973828</internalNodes>
          <leafValues>
            -1.2372373342514038e+00 5.1497620344161987e-01</leafValues></_>
        <_>
          <internalNodes>
            0 -1 4 -17 -268435457 -17 -268435457 -1 -1 -1 -1</internalNodes>
          <leafValues>
            -6.5826511383056641e-01 8.6318749189376831e-01</leafValues></_></weakClassifiers></_>
    <!-- stage 6 -->
    <_>
      <maxWeakCount>3</maxWeakCount>
      <stageThreshold>-1.2326843738555908e+00</stageThreshold>
      <weakClassifiers>
        <_>
          <internalNodes>
            0 -1 18 -1 -1 -1 -1 2147450877 -1 -32769 -1</internalNodes>
          <leafValues>
            -8.2163387537002563e-01 6.7353683710098267e-01</leafValues></_>
        <_>
          <internalNodes>
            0 -1 11 -1 -65537 -1 -65538 -1 -1 -1 -1</internalNodes>
          <leafValues>
            -8.1667035818099976e-01 6.6602945327758789e-01</leafValues></_>
        <_>
          <internalNodes>
            0 -1 17 -1090757268 -570490881 -8454145 -2 1853644156
            -589825 -196705 2144665444</internalNodes>
          <leafValues>
            -2.2635178565979004e+00 4.0561991930007935e-01</leafValues></_></weakClassifiers></_>
    <!-- stage 7 -->
    <_>
      <maxWeakCount>2</maxWeakCount>
      <stageThreshold>-5.2595371007919312e-01</stageThreshold>
      <weakClassifiers>
        <_>
          <internalNodes>
            0 -1 10 -18 -285212673 -18 -285212673 -1 -1 -1 -1</internalNodes>
          <leafValues>
            -9.5585936307907104e-01 7.0929765701293945e-01</leafValues></_>
        <_>
          <internalNodes>
            0 -1 14 2147405046 -131073 -18 -2 2147245564 -524289 -655361
            -196611</internalNodes>
          <leafValues>
            -1.2352513074874878e+00 5.1499813795089722e-01</leafValues></_></weakClassifiers></_>
    <!-- stage 8 -->
    <_>
      <maxWeakCount>4</maxWeakCount>
      <stageThreshold>-7.5280767679214478e-01</stageThreshold>
      <weakClassifiers>
        <_>
          <internalNodes>
            0 -1 7 -1 -1 -65537 -65538 -1 -1 -1 -1</internalNodes>
          <leafValues>
            -6.4964151382446289e-01 9.8955941200256348e-01</leafValues></_>
        <_>
          <internalNodes>
            0 -1 21 -1 -1 -1 -1 2147450879 -1 -32769 -1</internalNodes>
          <leafValues>
            -6.8041437864303589e-01 7.1377867460250854e-01</leafValues></_>
        <_>
          <internalNodes>
            0 -1 6 -4370 -268435457 -16777233 -1 -129 -1 -129 -1</internalNodes>
          <leafValues>
            -1.2666709423065186e+00 5.2454406023025513e-01</leafValues></_>
        <_>
          <internalNodes>
            0 -1 24 1341398524 -1 -1074266113 -1 -98307 -131073 -1
            -1074462724</internalNodes>
          <leafValues>
            -1.3528513908386230e+00 4.4972613453865051e-01</leafValues></_></weakClassifiers></_>
    <!-- stage 9 -->
    <_>
      <maxWeakCount>1</maxWeakCount>
      <stageThreshold>1.1434535980224609e+00</stageThreshold>
      <weakClassifiers>
        <_>
          <internalNodes>
            0 -1 5 -18 -16777217 -146 -1 -130 -1 -9 -130023425</internalNodes>
          <leafValues>
            -5.7564578056335449e+00 1.1434535980224609e+00</leafValues></_></weakClassifiers></_></stages>
  <features>
    <_>
      <rect>
        0 0 5 6</rect></_>
    <_>
      <rect>
        0 11 8 7</rect></_>
    <_>
      <rect>
        0 13 10 4</rect></_>
    <_>
      <rect>
        1 0 10 10</rect></_>
    <_>
      <rect>
        1 1 8 4</rect></_>
    <_>
      <rect>
        1 3 10 2</rect></_>
    <_>
      <rect>
        3 6 9 4</rect></_>
    <_>
      <rect>
        3 12 6 6</rect></_>
    <_>
      <rect>
        5 2 8 10</rect></_>
    <_>
      <rect>
        6 0 6 6</rect></_>
    <_>
      <rect>
        7 0 5 1</rect></_>
    <_>
      <rect>
        7 8 4 8</rect></_>
    <_>
      <rect>
        8 15 8 5</rect></_>
    <_>
      <rect>
        11 0 4 2</rect></_>
    <_>
      <rect>
        11 11 7 4</rect></_>
    <_>
      <rect>
        14 2 6 8</rect></_>
    <_>
      <rect>
        14 5 4 9</rect></_>
    <_>
      <rect>
        14 16 6 3</rect></_>
    <_>
      <rect>
        15 0 4 8</rect></_>
    <_>
      <rect>
        15 0 5 7</rect></_>
    <_>
      <rect>
        15 2 4 10</rect></_>
    <_>
      <rect>
        17 0 5 7</rect></_>
    <_>
      <rect>
        17 0 5 10</rect></_>
    <_>
      <rect>
        17 15 5 5</rect></_>
    <_>
      <rect>
        23 13 3 4</rect></_>
    <_>
      <rect>
        24 5 2 9</rect></_></features></cascade>
</opencv_storage>
