<?xml version="1.0"?>
<opencv_storage>
<!-- Created using Computer Vision System Toolbox(tm) for MATLAB(R) -->
<!-- Version 9.2.0.556344 (R2017a) -->
<!-- Compatible with OpenCV 3.1 -->
<cascade>
  <stageType>BOOST</stageType>
  <featureType>LBP</featureType>
  <height>32</height>
  <width>32</width>
  <stageParams>
    <boostType>GAB</boostType>
    <minHitRate>1.</minHitRate>
    <maxFalseAlarm>6.0000002384185791e-01</maxFalseAlarm>
    <weightTrimRate>9.4999999999999996e-01</weightTrimRate>
    <maxDepth>1</maxDepth>
    <maxWeakCount>100</maxWeakCount></stageParams>
  <featureParams>
    <maxCatCount>256</maxCatCount>
    <featSize>1</featSize></featureParams>
  <stageNum>11</stageNum>
  <stages>
    <!-- stage 0 -->
    <_>
      <maxWeakCount>2</maxWeakCount>
      <stageThreshold>-2.2685533761978149e-01</stageThreshold>
      <weakClassifiers>
        <_>
          <internalNodes>
            0 -1 8 -3 2147483647 -1 2147483647 -3 -1 -229 998244351</internalNodes>
          <leafValues>
            -1.3882436752319336e+00 9.8128861188888550e-01</leafValues></_>
        <_>
          <internalNodes>
            0 -1 6 -244 1434451839 -2 -16777217 2130673516 1358921599
            -18 -318771218</internalNodes>
          <leafValues>
            -5.7564578056335449e+00 1.1613883972167969e+00</leafValues></_></weakClassifiers></_>
    <!-- stage 1 -->
    <_>
      <maxWeakCount>2</maxWeakCount>
      <stageThreshold>-8.5430020093917847e-01</stageThreshold>
      <weakClassifiers>
        <_>
          <internalNodes>
            0 -1 13 -801966095 -1 -1 -1 -129 -1 -1 -210239617</internalNodes>
          <leafValues>
            -1.3637341260910034e+00 1.0742172002792358e+00</leafValues></_>
        <_>
          <internalNodes>
            0 -1 1 -2097763 2147483647 -129 2013265919 -131300 -1
            2138963805 469729151</internalNodes>
          <leafValues>
            -1.9285174608230591e+00 1.1540642976760864e+00</leafValues></_></weakClassifiers></_>
    <!-- stage 2 -->
    <_>
      <maxWeakCount>2</maxWeakCount>
      <stageThreshold>-7.0603646337985992e-02</stageThreshold>
      <weakClassifiers>
        <_>
          <internalNodes>
            0 -1 18 -49393 -1 -1 -1 -53249 -1 -1 -1</internalNodes>
          <leafValues>
            -1.3332281112670898e+00 1.0355366468429565e+00</leafValues></_>
        <_>
          <internalNodes>
            0 -1 5 1073577853 2147385343 -1 -32769 -33 -1 -1 -229380</internalNodes>
          <leafValues>
            -1.0850278139114380e+00 1.2626245021820068e+00</leafValues></_></weakClassifiers></_>
    <!-- stage 3 -->
    <_>
      <maxWeakCount>2</maxWeakCount>
      <stageThreshold>-1.8044323921203613e+00</stageThreshold>
      <weakClassifiers>
        <_>
          <internalNodes>
            0 -1 11 863894993 2122317823 -67108993 2080374655 2147352511
            -1 536739839 1946157055</internalNodes>
          <leafValues>
            -2.6990814208984375e+00 4.7118148207664490e-01</leafValues></_>
        <_>
          <internalNodes>
            0 -1 7 -151055356 -134217729 -3 2147483645 -49860 -33554433
            -25166086 2063597567</internalNodes>
          <leafValues>
            -2.1002771854400635e+00 8.9464896917343140e-01</leafValues></_></weakClassifiers></_>
    <!-- stage 4 -->
    <_>
      <maxWeakCount>2</maxWeakCount>
      <stageThreshold>-5.1821392774581909e-01</stageThreshold>
      <weakClassifiers>
        <_>
          <internalNodes>
            0 -1 16 -17 -1 -16777234 -486539265 -1 -1 -10 -134217737</internalNodes>
          <leafValues>
            -1.0262842178344727e+00 9.0558880567550659e-01</leafValues></_>
        <_>
          <internalNodes>
            0 -1 10 -226629420 2147483646 -1 -1 -3 -1 -1 1073709055</internalNodes>
          <leafValues>
            -1.4238027334213257e+00 8.6630338430404663e-01</leafValues></_></weakClassifiers></_>
    <!-- stage 5 -->
    <_>
      <maxWeakCount>2</maxWeakCount>
      <stageThreshold>-3.9095079898834229e-01</stageThreshold>
      <weakClassifiers>
        <_>
          <internalNodes>
            0 -1 2 -124 -1 -1 -1 -57 -1 -1342242866 754974717</internalNodes>
          <leafValues>
            -1.6160604953765869e+00 5.1169443130493164e-01</leafValues></_>
        <_>
          <internalNodes>
            0 -1 9 1073692671 -1 -1 -1 -1 -1 -1 -229380</internalNodes>
          <leafValues>
            -9.0264523029327393e-01 1.4767427444458008e+00</leafValues></_></weakClassifiers></_>
    <!-- stage 6 -->
    <_>
      <maxWeakCount>2</maxWeakCount>
      <stageThreshold>-4.6433597803115845e-01</stageThreshold>
      <weakClassifiers>
        <_>
          <internalNodes>
            0 -1 17 -16781329 -268435473 -16781330 -419430401 -32777
            2147483647 -25 -134217729</internalNodes>
          <leafValues>
            -1.2048416137695312e+00 9.2291337251663208e-01</leafValues></_>
        <_>
          <internalNodes>
            0 -1 14 -286332945 1878982655 -1526734234 662695935 -524297
            2147483647 -469762106 2146959334</internalNodes>
          <leafValues>
            -5.7564578056335449e+00 7.4050563573837280e-01</leafValues></_></weakClassifiers></_>
    <!-- stage 7 -->
    <_>
      <maxWeakCount>2</maxWeakCount>
      <stageThreshold>-1.3321652412414551e+00</stageThreshold>
      <weakClassifiers>
        <_>
          <internalNodes>
            0 -1 3 -1107550882 -32769 -3 -32769 -16516 -1 -1073758211
            1069489597</internalNodes>
          <leafValues>
            -1.8567860126495361e+00 3.2434770464897156e-01</leafValues></_>
        <_>
          <internalNodes>
            0 -1 12 -33590244 -1 -8388610 1610612445 -322 -167772161
            -159383830 -67174402</internalNodes>
          <leafValues>
            -1.6565129756927490e+00 7.4062919616699219e-01</leafValues></_></weakClassifiers></_>
    <!-- stage 8 -->
    <_>
      <maxWeakCount>2</maxWeakCount>
      <stageThreshold>-1.5335730314254761e+00</stageThreshold>
      <weakClassifiers>
        <_>
          <internalNodes>
            0 -1 19 -1074790530 652410879 -4194306 -1360592898
            2147483509 2147483519 -138 -419430537</internalNodes>
          <leafValues>
            -2.1751389503479004e+00 4.7701552510261536e-01</leafValues></_>
        <_>
          <internalNodes>
            0 -1 15 -16842908 -285212673 -16777233 -486604801 -137
            1467482111 -34970 1996484471</internalNodes>
          <leafValues>
            -5.7564578056335449e+00 6.4156591892242432e-01</leafValues></_></weakClassifiers></_>
    <!-- stage 9 -->
    <_>
      <maxWeakCount>1</maxWeakCount>
      <stageThreshold>9.1446924209594727e-01</stageThreshold>
      <weakClassifiers>
        <_>
          <internalNodes>
            0 -1 0 -14819507 -545292419 -8421377 -8421505 -545259684
            -32769 98303 523992928</internalNodes>
          <leafValues>
            -5.7564578056335449e+00 9.1446924209594727e-01</leafValues></_></weakClassifiers></_>
    <!-- stage 10 -->
    <_>
      <maxWeakCount>1</maxWeakCount>
      <stageThreshold>1.3086979389190674e+00</stageThreshold>
      <weakClassifiers>
        <_>
          <internalNodes>
            0 -1 4 -1359036420 -1 -268435457 -3 -2 -268435457
            -1073741825 16529428</internalNodes>
          <leafValues>
            -5.7564578056335449e+00 1.3086979389190674e+00</leafValues></_></weakClassifiers></_></stages>
  <features>
    <_>
      <rect>
        0 9 7 5</rect></_>
    <_>
      <rect>
        0 10 9 5</rect></_>
    <_>
      <rect>
        0 17 6 5</rect></_>
    <_>
      <rect>
        1 15 5 2</rect></_>
    <_>
      <rect>
        1 20 3 4</rect></_>
    <_>
      <rect>
        3 13 2 1</rect></_>
    <_>
      <rect>
        4 17 7 5</rect></_>
    <_>
      <rect>
        5 8 8 3</rect></_>
    <_>
      <rect>
        5 12 7 4</rect></_>
    <_>
      <rect>
        6 16 2 1</rect></_>
    <_>
      <rect>
        7 1 7 10</rect></_>
    <_>
      <rect>
        7 6 6 7</rect></_>
    <_>
      <rect>
        7 9 8 3</rect></_>
    <_>
      <rect>
        12 0 3 9</rect></_>
    <_>
      <rect>
        12 14 6 6</rect></_>
    <_>
      <rect>
        15 22 1 3</rect></_>
    <_>
      <rect>
        16 15 3 5</rect></_>
    <_>
      <rect>
        16 18 3 4</rect></_>
    <_>
      <rect>
        17 2 4 5</rect></_>
    <_>
      <rect>
        18 17 1 3</rect></_></features></cascade>
</opencv_storage>
